digraph Tree {
node [shape=box] ;
0 [label="X[0] <= 938.81\ngini = 0.56\nsamples = 1942\nvalue = [133, 965, 844]"] ;
1 [label="X[0] <= 188.824\ngini = 0.325\nsamples = 835\nvalue = [120, 41, 674]"] ;
0 -> 1 [labeldistance=2.5, labelangle=45, headlabel="True"] ;
2 [label="X[0] <= 41.715\ngini = 0.634\nsamples = 122\nvalue = [46, 23, 53]"] ;
1 -> 2 ;
3 [label="X[2] <= 3.5\ngini = 0.627\nsamples = 62\nvalue = [11, 23, 28]"] ;
2 -> 3 ;
4 [label="X[2] <= 1.5\ngini = 0.544\nsamples = 33\nvalue = [9, 4, 20]"] ;
3 -> 4 ;
5 [label="gini = 0.337\nsamples = 14\nvalue = [3, 0, 11]"] ;
4 -> 5 ;
6 [label="X[0] <= 13.937\ngini = 0.632\nsamples = 19\nvalue = [6, 4, 9]"] ;
4 -> 6 ;
7 [label="X[2] <= 2.5\ngini = 0.642\nsamples = 18\nvalue = [6, 4, 8]"] ;
6 -> 7 ;
8 [label="gini = 0.58\nsamples = 10\nvalue = [4, 1, 5]"] ;
7 -> 8 ;
9 [label="gini = 0.656\nsamples = 8\nvalue = [2, 3, 3]"] ;
7 -> 9 ;
10 [label="gini = 0.0\nsamples = 1\nvalue = [0, 0, 1]"] ;
6 -> 10 ;
11 [label="X[2] <= 6.5\ngini = 0.49\nsamples = 29\nvalue = [2, 19, 8]"] ;
3 -> 11 ;
12 [label="X[1] <= 0.013\ngini = 0.586\nsamples = 18\nvalue = [2, 9, 7]"] ;
11 -> 12 ;
13 [label="X[2] <= 5.5\ngini = 0.602\nsamples = 16\nvalue = [2, 7, 7]"] ;
12 -> 13 ;
14 [label="X[2] <= 4.5\ngini = 0.569\nsamples = 12\nvalue = [1, 6, 5]"] ;
13 -> 14 ;
15 [label="gini = 0.58\nsamples = 10\nvalue = [1, 5, 4]"] ;
14 -> 15 ;
16 [label="gini = 0.5\nsamples = 2\nvalue = [0, 1, 1]"] ;
14 -> 16 ;
17 [label="gini = 0.625\nsamples = 4\nvalue = [1, 1, 2]"] ;
13 -> 17 ;
18 [label="gini = 0.0\nsamples = 2\nvalue = [0, 2, 0]"] ;
12 -> 18 ;
19 [label="X[2] <= 17.0\ngini = 0.165\nsamples = 11\nvalue = [0, 10, 1]"] ;
11 -> 19 ;
20 [label="gini = 0.0\nsamples = 5\nvalue = [0, 5, 0]"] ;
19 -> 20 ;
21 [label="X[2] <= 19.0\ngini = 0.278\nsamples = 6\nvalue = [0, 5, 1]"] ;
19 -> 21 ;
22 [label="gini = 0.0\nsamples = 1\nvalue = [0, 0, 1]"] ;
21 -> 22 ;
23 [label="gini = 0.0\nsamples = 5\nvalue = [0, 5, 0]"] ;
21 -> 23 ;
24 [label="X[0] <= 157.181\ngini = 0.486\nsamples = 60\nvalue = [35, 0, 25]"] ;
2 -> 24 ;
25 [label="X[0] <= 107.09\ngini = 0.375\nsamples = 32\nvalue = [24, 0, 8]"] ;
24 -> 25 ;
26 [label="X[1] <= 1.577\ngini = 0.498\nsamples = 17\nvalue = [9, 0, 8]"] ;
25 -> 26 ;
27 [label="gini = 0.0\nsamples = 4\nvalue = [0, 0, 4]"] ;
26 -> 27 ;
28 [label="X[1] <= 2.062\ngini = 0.426\nsamples = 13\nvalue = [9, 0, 4]"] ;
26 -> 28 ;
29 [label="gini = 0.0\nsamples = 5\nvalue = [5, 0, 0]"] ;
28 -> 29 ;
30 [label="X[2] <= 1.5\ngini = 0.5\nsamples = 8\nvalue = [4, 0, 4]"] ;
28 -> 30 ;
31 [label="X[1] <= 2.7\ngini = 0.49\nsamples = 7\nvalue = [3, 0, 4]"] ;
30 -> 31 ;
32 [label="gini = 0.0\nsamples = 1\nvalue = [0, 0, 1]"] ;
31 -> 32 ;
33 [label="X[1] <= 3.382\ngini = 0.5\nsamples = 6\nvalue = [3, 0, 3]"] ;
31 -> 33 ;
34 [label="gini = 0.0\nsamples = 1\nvalue = [1, 0, 0]"] ;
33 -> 34 ;
35 [label="X[1] <= 3.87\ngini = 0.48\nsamples = 5\nvalue = [2, 0, 3]"] ;
33 -> 35 ;
36 [label="gini = 0.5\nsamples = 4\nvalue = [2, 0, 2]"] ;
35 -> 36 ;
37 [label="gini = 0.0\nsamples = 1\nvalue = [0, 0, 1]"] ;
35 -> 37 ;
38 [label="gini = 0.0\nsamples = 1\nvalue = [1, 0, 0]"] ;
30 -> 38 ;
39 [label="gini = 0.0\nsamples = 15\nvalue = [15, 0, 0]"] ;
25 -> 39 ;
40 [label="X[1] <= 7.795\ngini = 0.477\nsamples = 28\nvalue = [11, 0, 17]"] ;
24 -> 40 ;
41 [label="X[1] <= 1.096\ngini = 0.453\nsamples = 26\nvalue = [9, 0, 17]"] ;
40 -> 41 ;
42 [label="gini = 0.0\nsamples = 1\nvalue = [0, 0, 1]"] ;
41 -> 42 ;
43 [label="X[2] <= 3.5\ngini = 0.461\nsamples = 25\nvalue = [9, 0, 16]"] ;
41 -> 43 ;
44 [label="X[1] <= 3.899\ngini = 0.444\nsamples = 24\nvalue = [8, 0, 16]"] ;
43 -> 44 ;
45 [label="X[1] <= 3.174\ngini = 0.346\nsamples = 9\nvalue = [2, 0, 7]"] ;
44 -> 45 ;
46 [label="X[1] <= 2.324\ngini = 0.444\nsamples = 6\nvalue = [2, 0, 4]"] ;
45 -> 46 ;
47 [label="gini = 0.0\nsamples = 1\nvalue = [0, 0, 1]"] ;
46 -> 47 ;
48 [label="X[1] <= 2.526\ngini = 0.48\nsamples = 5\nvalue = [2, 0, 3]"] ;
46 -> 48 ;
49 [label="gini = 0.5\nsamples = 2\nvalue = [1, 0, 1]"] ;
48 -> 49 ;
50 [label="gini = 0.444\nsamples = 3\nvalue = [1, 0, 2]"] ;
48 -> 50 ;
51 [label="gini = 0.0\nsamples = 3\nvalue = [0, 0, 3]"] ;
45 -> 51 ;
52 [label="X[0] <= 173.707\ngini = 0.48\nsamples = 15\nvalue = [6, 0, 9]"] ;
44 -> 52 ;
53 [label="gini = 0.0\nsamples = 1\nvalue = [1, 0, 0]"] ;
52 -> 53 ;
54 [label="X[2] <= 1.5\ngini = 0.459\nsamples = 14\nvalue = [5, 0, 9]"] ;
52 -> 54 ;
55 [label="X[1] <= 7.548\ngini = 0.42\nsamples = 10\nvalue = [3, 0, 7]"] ;
54 -> 55 ;
56 [label="gini = 0.375\nsamples = 4\nvalue = [1, 0, 3]"] ;
55 -> 56 ;
57 [label="gini = 0.444\nsamples = 6\nvalue = [2, 0, 4]"] ;
55 -> 57 ;
58 [label="gini = 0.5\nsamples = 4\nvalue = [2, 0, 2]"] ;
54 -> 58 ;
59 [label="gini = 0.0\nsamples = 1\nvalue = [1, 0, 0]"] ;
43 -> 59 ;
60 [label="gini = 0.0\nsamples = 2\nvalue = [2, 0, 0]"] ;
40 -> 60 ;
61 [label="X[1] <= 4.389\ngini = 0.23\nsamples = 713\nvalue = [74, 18, 621]"] ;
1 -> 61 ;
62 [label="X[0] <= 547.705\ngini = 0.424\nsamples = 113\nvalue = [28, 4, 81]"] ;
61 -> 62 ;
63 [label="X[1] <= 4.358\ngini = 0.324\nsamples = 85\nvalue = [16, 1, 68]"] ;
62 -> 63 ;
64 [label="X[0] <= 465.605\ngini = 0.3\nsamples = 83\nvalue = [14, 1, 68]"] ;
63 -> 64 ;
65 [label="X[0] <= 421.516\ngini = 0.4\nsamples = 49\nvalue = [12, 1, 36]"] ;
64 -> 65 ;
66 [label="X[2] <= 59.5\ngini = 0.385\nsamples = 48\nvalue = [11, 1, 36]"] ;
65 -> 66 ;
67 [label="X[1] <= 1.723\ngini = 0.346\nsamples = 45\nvalue = [10, 0, 35]"] ;
66 -> 67 ;
68 [label="gini = 0.0\nsamples = 6\nvalue = [0, 0, 6]"] ;
67 -> 68 ;
69 [label="X[1] <= 2.856\ngini = 0.381\nsamples = 39\nvalue = [10, 0, 29]"] ;
67 -> 69 ;
70 [label="X[0] <= 395.621\ngini = 0.5\nsamples = 8\nvalue = [4, 0, 4]"] ;
69 -> 70 ;
71 [label="X[2] <= 6.5\ngini = 0.49\nsamples = 7\nvalue = [3, 0, 4]"] ;
70 -> 71 ;
72 [label="X[2] <= 4.5\ngini = 0.444\nsamples = 6\nvalue = [2, 0, 4]"] ;
71 -> 72 ;
73 [label="X[2] <= 3.5\ngini = 0.5\nsamples = 4\nvalue = [2, 0, 2]"] ;
72 -> 73 ;
74 [label="gini = 0.444\nsamples = 3\nvalue = [1, 0, 2]"] ;
73 -> 74 ;
75 [label="gini = 0.0\nsamples = 1\nvalue = [1, 0, 0]"] ;
73 -> 75 ;
76 [label="gini = 0.0\nsamples = 2\nvalue = [0, 0, 2]"] ;
72 -> 76 ;
77 [label="gini = 0.0\nsamples = 1\nvalue = [1, 0, 0]"] ;
71 -> 77 ;
78 [label="gini = 0.0\nsamples = 1\nvalue = [1, 0, 0]"] ;
70 -> 78 ;
79 [label="X[1] <= 3.517\ngini = 0.312\nsamples = 31\nvalue = [6, 0, 25]"] ;
69 -> 79 ;
80 [label="gini = 0.0\nsamples = 5\nvalue = [0, 0, 5]"] ;
79 -> 80 ;
81 [label="X[1] <= 3.888\ngini = 0.355\nsamples = 26\nvalue = [6, 0, 20]"] ;
79 -> 81 ;
82 [label="X[1] <= 3.801\ngini = 0.494\nsamples = 9\nvalue = [4, 0, 5]"] ;
81 -> 82 ;
83 [label="X[1] <= 3.569\ngini = 0.278\nsamples = 6\nvalue = [1, 0, 5]"] ;
82 -> 83 ;
84 [label="gini = 0.0\nsamples = 1\nvalue = [1, 0, 0]"] ;
83 -> 84 ;
85 [label="gini = 0.0\nsamples = 5\nvalue = [0, 0, 5]"] ;
83 -> 85 ;
86 [label="gini = 0.0\nsamples = 3\nvalue = [3, 0, 0]"] ;
82 -> 86 ;
87 [label="X[1] <= 4.001\ngini = 0.208\nsamples = 17\nvalue = [2, 0, 15]"] ;
81 -> 87 ;
88 [label="gini = 0.278\nsamples = 12\nvalue = [2, 0, 10]"] ;
87 -> 88 ;
89 [label="gini = 0.0\nsamples = 5\nvalue = [0, 0, 5]"] ;
87 -> 89 ;
90 [label="X[2] <= 95.0\ngini = 0.667\nsamples = 3\nvalue = [1, 1, 1]"] ;
66 -> 90 ;
91 [label="gini = 0.0\nsamples = 1\nvalue = [0, 1, 0]"] ;
90 -> 91 ;
92 [label="X[2] <= 128.0\ngini = 0.5\nsamples = 2\nvalue = [1, 0, 1]"] ;
90 -> 92 ;
93 [label="gini = 0.0\nsamples = 1\nvalue = [1, 0, 0]"] ;
92 -> 93 ;
94 [label="gini = 0.0\nsamples = 1\nvalue = [0, 0, 1]"] ;
92 -> 94 ;
95 [label="gini = 0.0\nsamples = 1\nvalue = [1, 0, 0]"] ;
65 -> 95 ;
96 [label="X[2] <= 46.0\ngini = 0.111\nsamples = 34\nvalue = [2, 0, 32]"] ;
64 -> 96 ;
97 [label="X[1] <= 2.699\ngini = 0.061\nsamples = 32\nvalue = [1, 0, 31]"] ;
96 -> 97 ;
98 [label="gini = 0.0\nsamples = 12\nvalue = [0, 0, 12]"] ;
97 -> 98 ;
99 [label="X[2] <= 7.5\ngini = 0.095\nsamples = 20\nvalue = [1, 0, 19]"] ;
97 -> 99 ;
100 [label="gini = 0.0\nsamples = 12\nvalue = [0, 0, 12]"] ;
99 -> 100 ;
101 [label="gini = 0.219\nsamples = 8\nvalue = [1, 0, 7]"] ;
99 -> 101 ;
102 [label="X[2] <= 89.5\ngini = 0.5\nsamples = 2\nvalue = [1, 0, 1]"] ;
96 -> 102 ;
103 [label="gini = 0.0\nsamples = 1\nvalue = [1, 0, 0]"] ;
102 -> 103 ;
104 [label="gini = 0.0\nsamples = 1\nvalue = [0, 0, 1]"] ;
102 -> 104 ;
105 [label="gini = 0.0\nsamples = 2\nvalue = [2, 0, 0]"] ;
63 -> 105 ;
106 [label="X[2] <= 23.5\ngini = 0.589\nsamples = 28\nvalue = [12, 3, 13]"] ;
62 -> 106 ;
107 [label="X[1] <= 2.494\ngini = 0.515\nsamples = 20\nvalue = [12, 1, 7]"] ;
106 -> 107 ;
108 [label="gini = 0.0\nsamples = 5\nvalue = [5, 0, 0]"] ;
107 -> 108 ;
109 [label="X[0] <= 753.034\ngini = 0.56\nsamples = 15\nvalue = [7, 1, 7]"] ;
107 -> 109 ;
110 [label="X[0] <= 568.425\ngini = 0.444\nsamples = 9\nvalue = [3, 0, 6]"] ;
109 -> 110 ;
111 [label="gini = 0.0\nsamples = 2\nvalue = [2, 0, 0]"] ;
110 -> 111 ;
112 [label="X[1] <= 3.24\ngini = 0.245\nsamples = 7\nvalue = [1, 0, 6]"] ;
110 -> 112 ;
113 [label="X[2] <= 9.5\ngini = 0.444\nsamples = 3\nvalue = [1, 0, 2]"] ;
112 -> 113 ;
114 [label="gini = 0.0\nsamples = 1\nvalue = [1, 0, 0]"] ;
113 -> 114 ;
115 [label="gini = 0.0\nsamples = 2\nvalue = [0, 0, 2]"] ;
113 -> 115 ;
116 [label="gini = 0.0\nsamples = 4\nvalue = [0, 0, 4]"] ;
112 -> 116 ;
117 [label="X[2] <= 9.5\ngini = 0.5\nsamples = 6\nvalue = [4, 1, 1]"] ;
109 -> 117 ;
118 [label="X[1] <= 3.888\ngini = 0.32\nsamples = 5\nvalue = [4, 0, 1]"] ;
117 -> 118 ;
119 [label="gini = 0.444\nsamples = 3\nvalue = [2, 0, 1]"] ;
118 -> 119 ;
120 [label="gini = 0.0\nsamples = 2\nvalue = [2, 0, 0]"] ;
118 -> 120 ;
121 [label="gini = 0.0\nsamples = 1\nvalue = [0, 1, 0]"] ;
117 -> 121 ;
122 [label="X[0] <= 736.093\ngini = 0.375\nsamples = 8\nvalue = [0, 2, 6]"] ;
106 -> 122 ;
123 [label="X[2] <= 70.0\ngini = 0.48\nsamples = 5\nvalue = [0, 2, 3]"] ;
122 -> 123 ;
124 [label="X[2] <= 35.5\ngini = 0.444\nsamples = 3\nvalue = [0, 2, 1]"] ;
123 -> 124 ;
125 [label="gini = 0.0\nsamples = 1\nvalue = [0, 0, 1]"] ;
124 -> 125 ;
126 [label="gini = 0.0\nsamples = 2\nvalue = [0, 2, 0]"] ;
124 -> 126 ;
127 [label="gini = 0.0\nsamples = 2\nvalue = [0, 0, 2]"] ;
123 -> 127 ;
128 [label="gini = 0.0\nsamples = 3\nvalue = [0, 0, 3]"] ;
122 -> 128 ;
129 [label="X[0] <= 333.628\ngini = 0.184\nsamples = 600\nvalue = [46, 14, 540]"] ;
61 -> 129 ;
130 [label="X[1] <= 12.465\ngini = 0.444\nsamples = 30\nvalue = [10, 0, 20]"] ;
129 -> 130 ;
131 [label="X[2] <= 2.5\ngini = 0.384\nsamples = 27\nvalue = [7, 0, 20]"] ;
130 -> 131 ;
132 [label="X[1] <= 7.128\ngini = 0.355\nsamples = 26\nvalue = [6, 0, 20]"] ;
131 -> 132 ;
133 [label="gini = 0.0\nsamples = 4\nvalue = [0, 0, 4]"] ;
132 -> 133 ;
134 [label="X[0] <= 266.752\ngini = 0.397\nsamples = 22\nvalue = [6, 0, 16]"] ;
132 -> 134 ;
135 [label="X[0] <= 238.606\ngini = 0.337\nsamples = 14\nvalue = [3, 0, 11]"] ;
134 -> 135 ;
136 [label="X[0] <= 227.25\ngini = 0.397\nsamples = 11\nvalue = [3, 0, 8]"] ;
135 -> 136 ;
137 [label="X[0] <= 204.439\ngini = 0.32\nsamples = 10\nvalue = [2, 0, 8]"] ;
136 -> 137 ;
138 [label="gini = 0.346\nsamples = 9\nvalue = [2, 0, 7]"] ;
137 -> 138 ;
139 [label="gini = 0.0\nsamples = 1\nvalue = [0, 0, 1]"] ;
137 -> 139 ;
140 [label="gini = 0.0\nsamples = 1\nvalue = [1, 0, 0]"] ;
136 -> 140 ;
141 [label="gini = 0.0\nsamples = 3\nvalue = [0, 0, 3]"] ;
135 -> 141 ;
142 [label="X[1] <= 12.291\ngini = 0.469\nsamples = 8\nvalue = [3, 0, 5]"] ;
134 -> 142 ;
143 [label="X[1] <= 12.178\ngini = 0.49\nsamples = 7\nvalue = [3, 0, 4]"] ;
142 -> 143 ;
144 [label="X[0] <= 283.359\ngini = 0.444\nsamples = 6\nvalue = [2, 0, 4]"] ;
143 -> 144 ;
145 [label="gini = 0.444\nsamples = 3\nvalue = [1, 0, 2]"] ;
144 -> 145 ;
146 [label="gini = 0.444\nsamples = 3\nvalue = [1, 0, 2]"] ;
144 -> 146 ;
147 [label="gini = 0.0\nsamples = 1\nvalue = [1, 0, 0]"] ;
143 -> 147 ;
148 [label="gini = 0.0\nsamples = 1\nvalue = [0, 0, 1]"] ;
142 -> 148 ;
149 [label="gini = 0.0\nsamples = 1\nvalue = [1, 0, 0]"] ;
131 -> 149 ;
150 [label="gini = 0.0\nsamples = 3\nvalue = [3, 0, 0]"] ;
130 -> 150 ;
151 [label="X[0] <= 540.128\ngini = 0.163\nsamples = 570\nvalue = [36, 14, 520]"] ;
129 -> 151 ;
152 [label="X[0] <= 515.2\ngini = 0.097\nsamples = 394\nvalue = [19, 1, 374]"] ;
151 -> 152 ;
153 [label="X[0] <= 349.713\ngini = 0.222\nsamples = 55\nvalue = [7, 0, 48]"] ;
152 -> 153 ;
154 [label="gini = 0.0\nsamples = 28\nvalue = [0, 0, 28]"] ;
153 -> 154 ;
155 [label="X[0] <= 364.03\ngini = 0.384\nsamples = 27\nvalue = [7, 0, 20]"] ;
153 -> 155 ;
156 [label="X[0] <= 357.037\ngini = 0.32\nsamples = 5\nvalue = [4, 0, 1]"] ;
155 -> 156 ;
157 [label="X[0] <= 353.521\ngini = 0.5\nsamples = 2\nvalue = [1, 0, 1]"] ;
156 -> 157 ;
158 [label="gini = 0.0\nsamples = 1\nvalue = [1, 0, 0]"] ;
157 -> 158 ;
159 [label="gini = 0.0\nsamples = 1\nvalue = [0, 0, 1]"] ;
157 -> 159 ;
160 [label="gini = 0.0\nsamples = 3\nvalue = [3, 0, 0]"] ;
156 -> 160 ;
161 [label="X[0] <= 512.68\ngini = 0.236\nsamples = 22\nvalue = [3, 0, 19]"] ;
155 -> 161 ;
162 [label="X[0] <= 384.529\ngini = 0.172\nsamples = 21\nvalue = [2, 0, 19]"] ;
161 -> 162 ;
163 [label="X[0] <= 374.146\ngini = 0.444\nsamples = 3\nvalue = [1, 0, 2]"] ;
162 -> 163 ;
164 [label="gini = 0.0\nsamples = 2\nvalue = [0, 0, 2]"] ;
163 -> 164 ;
165 [label="gini = 0.0\nsamples = 1\nvalue = [1, 0, 0]"] ;
163 -> 165 ;
166 [label="X[0] <= 466.381\ngini = 0.105\nsamples = 18\nvalue = [1, 0, 17]"] ;
162 -> 166 ;
167 [label="gini = 0.0\nsamples = 15\nvalue = [0, 0, 15]"] ;
166 -> 167 ;
168 [label="X[0] <= 487.808\ngini = 0.444\nsamples = 3\nvalue = [1, 0, 2]"] ;
166 -> 168 ;
169 [label="gini = 0.0\nsamples = 1\nvalue = [1, 0, 0]"] ;
168 -> 169 ;
170 [label="gini = 0.0\nsamples = 2\nvalue = [0, 0, 2]"] ;
168 -> 170 ;
171 [label="gini = 0.0\nsamples = 1\nvalue = [1, 0, 0]"] ;
161 -> 171 ;
172 [label="X[1] <= 21.983\ngini = 0.074\nsamples = 339\nvalue = [12, 1, 326]"] ;
152 -> 172 ;
173 [label="X[1] <= 6.345\ngini = 0.053\nsamples = 220\nvalue = [5, 1, 214]"] ;
172 -> 173 ;
174 [label="X[1] <= 4.452\ngini = 0.117\nsamples = 49\nvalue = [2, 1, 46]"] ;
173 -> 174 ;
175 [label="gini = 0.142\nsamples = 13\nvalue = [1, 0, 12]"] ;
174 -> 175 ;
176 [label="X[1] <= 5.447\ngini = 0.106\nsamples = 36\nvalue = [1, 1, 34]"] ;
174 -> 176 ;
177 [label="gini = 0.0\nsamples = 2\nvalue = [0, 0, 2]"] ;
176 -> 177 ;
178 [label="gini = 0.112\nsamples = 34\nvalue = [1, 1, 32]"] ;
176 -> 178 ;
179 [label="X[1] <= 11.091\ngini = 0.034\nsamples = 171\nvalue = [3, 0, 168]"] ;
173 -> 179 ;
180 [label="X[1] <= 7.262\ngini = 0.035\nsamples = 166\nvalue = [3, 0, 163]"] ;
179 -> 180 ;
181 [label="gini = 0.0\nsamples = 1\nvalue = [0, 0, 1]"] ;
180 -> 181 ;
182 [label="X[1] <= 9.177\ngini = 0.036\nsamples = 165\nvalue = [3, 0, 162]"] ;
180 -> 182 ;
183 [label="gini = 0.034\nsamples = 57\nvalue = [1, 0, 56]"] ;
182 -> 183 ;
184 [label="gini = 0.036\nsamples = 108\nvalue = [2, 0, 106]"] ;
182 -> 184 ;
185 [label="gini = 0.0\nsamples = 5\nvalue = [0, 0, 5]"] ;
179 -> 185 ;
186 [label="X[0] <= 528.612\ngini = 0.111\nsamples = 119\nvalue = [7, 0, 112]"] ;
172 -> 186 ;
187 [label="gini = 0.112\nsamples = 117\nvalue = [7, 0, 110]"] ;
186 -> 187 ;
188 [label="gini = 0.0\nsamples = 2\nvalue = [0, 0, 2]"] ;
186 -> 188 ;
189 [label="X[0] <= 912.441\ngini = 0.297\nsamples = 176\nvalue = [17, 13, 146]"] ;
151 -> 189 ;
190 [label="X[0] <= 541.027\ngini = 0.275\nsamples = 166\nvalue = [17, 9, 140]"] ;
189 -> 190 ;
191 [label="gini = 0.0\nsamples = 1\nvalue = [1, 0, 0]"] ;
190 -> 191 ;
192 [label="X[2] <= 5.5\ngini = 0.268\nsamples = 165\nvalue = [16, 9, 140]"] ;
190 -> 192 ;
193 [label="X[0] <= 633.256\ngini = 0.243\nsamples = 155\nvalue = [13, 8, 134]"] ;
192 -> 193 ;
194 [label="X[1] <= 11.707\ngini = 0.431\nsamples = 21\nvalue = [5, 1, 15]"] ;
193 -> 194 ;
195 [label="X[1] <= 7.584\ngini = 0.133\nsamples = 14\nvalue = [1, 0, 13]"] ;
194 -> 195 ;
196 [label="X[1] <= 7.552\ngini = 0.245\nsamples = 7\nvalue = [1, 0, 6]"] ;
195 -> 196 ;
197 [label="gini = 0.0\nsamples = 6\nvalue = [0, 0, 6]"] ;
196 -> 197 ;
198 [label="gini = 0.0\nsamples = 1\nvalue = [1, 0, 0]"] ;
196 -> 198 ;
199 [label="gini = 0.0\nsamples = 7\nvalue = [0, 0, 7]"] ;
195 -> 199 ;
200 [label="X[0] <= 627.276\ngini = 0.571\nsamples = 7\nvalue = [4, 1, 2]"] ;
194 -> 200 ;
201 [label="X[0] <= 555.111\ngini = 0.444\nsamples = 6\nvalue = [4, 0, 2]"] ;
200 -> 201 ;
202 [label="gini = 0.0\nsamples = 1\nvalue = [0, 0, 1]"] ;
201 -> 202 ;
203 [label="X[0] <= 616.271\ngini = 0.32\nsamples = 5\nvalue = [4, 0, 1]"] ;
201 -> 203 ;
204 [label="gini = 0.0\nsamples = 3\nvalue = [3, 0, 0]"] ;
203 -> 204 ;
205 [label="X[1] <= 12.947\ngini = 0.5\nsamples = 2\nvalue = [1, 0, 1]"] ;
203 -> 205 ;
206 [label="gini = 0.0\nsamples = 1\nvalue = [0, 0, 1]"] ;
205 -> 206 ;
207 [label="gini = 0.0\nsamples = 1\nvalue = [1, 0, 0]"] ;
205 -> 207 ;
208 [label="gini = 0.0\nsamples = 1\nvalue = [0, 1, 0]"] ;
200 -> 208 ;
209 [label="X[1] <= 8.157\ngini = 0.205\nsamples = 134\nvalue = [8, 7, 119]"] ;
193 -> 209 ;
210 [label="X[1] <= 6.793\ngini = 0.293\nsamples = 28\nvalue = [5, 0, 23]"] ;
209 -> 210 ;
211 [label="X[1] <= 6.664\ngini = 0.095\nsamples = 20\nvalue = [1, 0, 19]"] ;
210 -> 211 ;
212 [label="gini = 0.0\nsamples = 11\nvalue = [0, 0, 11]"] ;
211 -> 212 ;
213 [label="gini = 0.198\nsamples = 9\nvalue = [1, 0, 8]"] ;
211 -> 213 ;
214 [label="X[0] <= 730.243\ngini = 0.5\nsamples = 8\nvalue = [4, 0, 4]"] ;
210 -> 214 ;
215 [label="X[0] <= 673.155\ngini = 0.444\nsamples = 3\nvalue = [2, 0, 1]"] ;
214 -> 215 ;
216 [label="gini = 0.5\nsamples = 2\nvalue = [1, 0, 1]"] ;
215 -> 216 ;
217 [label="gini = 0.0\nsamples = 1\nvalue = [1, 0, 0]"] ;
215 -> 217 ;
218 [label="gini = 0.48\nsamples = 5\nvalue = [2, 0, 3]"] ;
214 -> 218 ;
219 [label="X[1] <= 9.291\ngini = 0.175\nsamples = 106\nvalue = [3, 7, 96]"] ;
209 -> 219 ;
220 [label="X[1] <= 9.025\ngini = 0.245\nsamples = 28\nvalue = [0, 4, 24]"] ;
219 -> 220 ;
221 [label="X[1] <= 8.968\ngini = 0.165\nsamples = 22\nvalue = [0, 2, 20]"] ;
220 -> 221 ;
222 [label="gini = 0.0\nsamples = 8\nvalue = [0, 0, 8]"] ;
221 -> 222 ;
223 [label="gini = 0.245\nsamples = 14\nvalue = [0, 2, 12]"] ;
221 -> 223 ;
224 [label="X[1] <= 9.115\ngini = 0.444\nsamples = 6\nvalue = [0, 2, 4]"] ;
220 -> 224 ;
225 [label="gini = 0.0\nsamples = 1\nvalue = [0, 1, 0]"] ;
224 -> 225 ;
226 [label="X[1] <= 9.172\ngini = 0.32\nsamples = 5\nvalue = [0, 1, 4]"] ;
224 -> 226 ;
227 [label="gini = 0.0\nsamples = 1\nvalue = [0, 0, 1]"] ;
226 -> 227 ;
228 [label="gini = 0.375\nsamples = 4\nvalue = [0, 1, 3]"] ;
226 -> 228 ;
229 [label="X[0] <= 640.504\ngini = 0.145\nsamples = 78\nvalue = [3, 3, 72]"] ;
219 -> 229 ;
230 [label="X[0] <= 634.54\ngini = 0.5\nsamples = 2\nvalue = [1, 0, 1]"] ;
229 -> 230 ;
231 [label="gini = 0.0\nsamples = 1\nvalue = [0, 0, 1]"] ;
230 -> 231 ;
232 [label="gini = 0.0\nsamples = 1\nvalue = [1, 0, 0]"] ;
230 -> 232 ;
233 [label="X[0] <= 769.873\ngini = 0.125\nsamples = 76\nvalue = [2, 3, 71]"] ;
229 -> 233 ;
234 [label="X[0] <= 699.311\ngini = 0.073\nsamples = 53\nvalue = [1, 1, 51]"] ;
233 -> 234 ;
235 [label="X[1] <= 13.623\ngini = 0.054\nsamples = 36\nvalue = [0, 1, 35]"] ;
234 -> 235 ;
236 [label="X[1] <= 11.575\ngini = 0.074\nsamples = 26\nvalue = [0, 1, 25]"] ;
235 -> 236 ;
237 [label="gini = 0.0\nsamples = 3\nvalue = [0, 0, 3]"] ;
236 -> 237 ;
238 [label="gini = 0.083\nsamples = 23\nvalue = [0, 1, 22]"] ;
236 -> 238 ;
239 [label="gini = 0.0\nsamples = 10\nvalue = [0, 0, 10]"] ;
235 -> 239 ;
240 [label="X[0] <= 705.433\ngini = 0.111\nsamples = 17\nvalue = [1, 0, 16]"] ;
234 -> 240 ;
241 [label="X[2] <= 2.5\ngini = 0.153\nsamples = 12\nvalue = [1, 0, 11]"] ;
240 -> 241 ;
242 [label="gini = 0.18\nsamples = 10\nvalue = [1, 0, 9]"] ;
241 -> 242 ;
243 [label="gini = 0.0\nsamples = 2\nvalue = [0, 0, 2]"] ;
241 -> 243 ;
244 [label="gini = 0.0\nsamples = 5\nvalue = [0, 0, 5]"] ;
240 -> 244 ;
245 [label="X[1] <= 10.875\ngini = 0.234\nsamples = 23\nvalue = [1, 2, 20]"] ;
233 -> 245 ;
246 [label="gini = 0.0\nsamples = 1\nvalue = [1, 0, 0]"] ;
245 -> 246 ;
247 [label="X[0] <= 841.668\ngini = 0.165\nsamples = 22\nvalue = [0, 2, 20]"] ;
245 -> 247 ;
248 [label="X[0] <= 828.54\ngini = 0.245\nsamples = 14\nvalue = [0, 2, 12]"] ;
247 -> 248 ;
249 [label="X[1] <= 11.32\ngini = 0.142\nsamples = 13\nvalue = [0, 1, 12]"] ;
248 -> 249 ;
250 [label="X[1] <= 11.134\ngini = 0.278\nsamples = 6\nvalue = [0, 1, 5]"] ;
249 -> 250 ;
251 [label="gini = 0.0\nsamples = 1\nvalue = [0, 0, 1]"] ;
250 -> 251 ;
252 [label="gini = 0.32\nsamples = 5\nvalue = [0, 1, 4]"] ;
250 -> 252 ;
253 [label="gini = 0.0\nsamples = 7\nvalue = [0, 0, 7]"] ;
249 -> 253 ;
254 [label="gini = 0.0\nsamples = 1\nvalue = [0, 1, 0]"] ;
248 -> 254 ;
255 [label="gini = 0.0\nsamples = 8\nvalue = [0, 0, 8]"] ;
247 -> 255 ;
256 [label="X[1] <= 4.723\ngini = 0.54\nsamples = 10\nvalue = [3, 1, 6]"] ;
192 -> 256 ;
257 [label="gini = 0.0\nsamples = 3\nvalue = [0, 0, 3]"] ;
256 -> 257 ;
258 [label="X[1] <= 4.774\ngini = 0.612\nsamples = 7\nvalue = [3, 1, 3]"] ;
256 -> 258 ;
259 [label="gini = 0.0\nsamples = 1\nvalue = [1, 0, 0]"] ;
258 -> 259 ;
260 [label="X[0] <= 799.812\ngini = 0.611\nsamples = 6\nvalue = [2, 1, 3]"] ;
258 -> 260 ;
261 [label="X[1] <= 5.234\ngini = 0.444\nsamples = 3\nvalue = [2, 0, 1]"] ;
260 -> 261 ;
262 [label="gini = 0.0\nsamples = 1\nvalue = [0, 0, 1]"] ;
261 -> 262 ;
263 [label="gini = 0.0\nsamples = 2\nvalue = [2, 0, 0]"] ;
261 -> 263 ;
264 [label="X[1] <= 5.224\ngini = 0.444\nsamples = 3\nvalue = [0, 1, 2]"] ;
260 -> 264 ;
265 [label="gini = 0.5\nsamples = 2\nvalue = [0, 1, 1]"] ;
264 -> 265 ;
266 [label="gini = 0.0\nsamples = 1\nvalue = [0, 0, 1]"] ;
264 -> 266 ;
267 [label="X[0] <= 930.234\ngini = 0.48\nsamples = 10\nvalue = [0, 4, 6]"] ;
189 -> 267 ;
268 [label="X[1] <= 7.506\ngini = 0.48\nsamples = 5\nvalue = [0, 3, 2]"] ;
267 -> 268 ;
269 [label="gini = 0.0\nsamples = 1\nvalue = [0, 0, 1]"] ;
268 -> 269 ;
270 [label="X[1] <= 15.994\ngini = 0.375\nsamples = 4\nvalue = [0, 3, 1]"] ;
268 -> 270 ;
271 [label="gini = 0.0\nsamples = 2\nvalue = [0, 2, 0]"] ;
270 -> 271 ;
272 [label="gini = 0.5\nsamples = 2\nvalue = [0, 1, 1]"] ;
270 -> 272 ;
273 [label="X[2] <= 4.5\ngini = 0.32\nsamples = 5\nvalue = [0, 1, 4]"] ;
267 -> 273 ;
274 [label="gini = 0.0\nsamples = 3\nvalue = [0, 0, 3]"] ;
273 -> 274 ;
275 [label="X[0] <= 933.365\ngini = 0.5\nsamples = 2\nvalue = [0, 1, 1]"] ;
273 -> 275 ;
276 [label="gini = 0.0\nsamples = 1\nvalue = [0, 0, 1]"] ;
275 -> 276 ;
277 [label="gini = 0.0\nsamples = 1\nvalue = [0, 1, 0]"] ;
275 -> 277 ;
278 [label="X[0] <= 1882.65\ngini = 0.28\nsamples = 1107\nvalue = [13, 924, 170]"] ;
0 -> 278 [labeldistance=2.5, labelangle=-45, headlabel="False"] ;
279 [label="X[0] <= 1283.468\ngini = 0.478\nsamples = 437\nvalue = [9, 277, 151]"] ;
278 -> 279 ;
280 [label="X[0] <= 1065.644\ngini = 0.515\nsamples = 169\nvalue = [3, 89, 77]"] ;
279 -> 280 ;
281 [label="X[1] <= 4.339\ngini = 0.429\nsamples = 88\nvalue = [2, 62, 24]"] ;
280 -> 281 ;
282 [label="gini = 0.0\nsamples = 4\nvalue = [0, 0, 4]"] ;
281 -> 282 ;
283 [label="X[0] <= 981.384\ngini = 0.398\nsamples = 84\nvalue = [2, 62, 20]"] ;
281 -> 283 ;
284 [label="X[1] <= 9.882\ngini = 0.567\nsamples = 23\nvalue = [2, 12, 9]"] ;
283 -> 284 ;
285 [label="X[1] <= 8.114\ngini = 0.32\nsamples = 5\nvalue = [1, 4, 0]"] ;
284 -> 285 ;
286 [label="X[1] <= 7.441\ngini = 0.5\nsamples = 2\nvalue = [1, 1, 0]"] ;
285 -> 286 ;
287 [label="gini = 0.0\nsamples = 1\nvalue = [0, 1, 0]"] ;
286 -> 287 ;
288 [label="gini = 0.0\nsamples = 1\nvalue = [1, 0, 0]"] ;
286 -> 288 ;
289 [label="gini = 0.0\nsamples = 3\nvalue = [0, 3, 0]"] ;
285 -> 289 ;
290 [label="X[1] <= 11.706\ngini = 0.549\nsamples = 18\nvalue = [1, 8, 9]"] ;
284 -> 290 ;
291 [label="X[0] <= 978.034\ngini = 0.375\nsamples = 8\nvalue = [0, 2, 6]"] ;
290 -> 291 ;
292 [label="X[1] <= 9.899\ngini = 0.444\nsamples = 6\nvalue = [0, 2, 4]"] ;
291 -> 292 ;
293 [label="gini = 0.0\nsamples = 1\nvalue = [0, 0, 1]"] ;
292 -> 293 ;
294 [label="X[1] <= 10.046\ngini = 0.48\nsamples = 5\nvalue = [0, 2, 3]"] ;
292 -> 294 ;
295 [label="gini = 0.444\nsamples = 3\nvalue = [0, 1, 2]"] ;
294 -> 295 ;
296 [label="gini = 0.5\nsamples = 2\nvalue = [0, 1, 1]"] ;
294 -> 296 ;
297 [label="gini = 0.0\nsamples = 2\nvalue = [0, 0, 2]"] ;
291 -> 297 ;
298 [label="X[1] <= 16.834\ngini = 0.54\nsamples = 10\nvalue = [1, 6, 3]"] ;
290 -> 298 ;
299 [label="X[1] <= 13.391\ngini = 0.375\nsamples = 4\nvalue = [1, 3, 0]"] ;
298 -> 299 ;
300 [label="gini = 0.0\nsamples = 2\nvalue = [0, 2, 0]"] ;
299 -> 300 ;
301 [label="X[1] <= 13.574\ngini = 0.5\nsamples = 2\nvalue = [1, 1, 0]"] ;
299 -> 301 ;
302 [label="gini = 0.0\nsamples = 1\nvalue = [1, 0, 0]"] ;
301 -> 302 ;
303 [label="gini = 0.0\nsamples = 1\nvalue = [0, 1, 0]"] ;
301 -> 303 ;
304 [label="X[0] <= 970.742\ngini = 0.5\nsamples = 6\nvalue = [0, 3, 3]"] ;
298 -> 304 ;
305 [label="gini = 0.0\nsamples = 1\nvalue = [0, 0, 1]"] ;
304 -> 305 ;
306 [label="X[0] <= 977.332\ngini = 0.48\nsamples = 5\nvalue = [0, 3, 2]"] ;
304 -> 306 ;
307 [label="gini = 0.0\nsamples = 1\nvalue = [0, 1, 0]"] ;
306 -> 307 ;
308 [label="gini = 0.5\nsamples = 4\nvalue = [0, 2, 2]"] ;
306 -> 308 ;
309 [label="X[1] <= 21.401\ngini = 0.296\nsamples = 61\nvalue = [0, 50, 11]"] ;
283 -> 309 ;
310 [label="X[0] <= 1010.341\ngini = 0.249\nsamples = 55\nvalue = [0, 47, 8]"] ;
309 -> 310 ;
311 [label="gini = 0.0\nsamples = 14\nvalue = [0, 14, 0]"] ;
310 -> 311 ;
312 [label="X[0] <= 1014.177\ngini = 0.314\nsamples = 41\nvalue = [0, 33, 8]"] ;
310 -> 312 ;
313 [label="gini = 0.0\nsamples = 1\nvalue = [0, 0, 1]"] ;
312 -> 313 ;
314 [label="X[1] <= 14.422\ngini = 0.289\nsamples = 40\nvalue = [0, 33, 7]"] ;
312 -> 314 ;
315 [label="X[1] <= 14.267\ngini = 0.35\nsamples = 31\nvalue = [0, 24, 7]"] ;
314 -> 315 ;
316 [label="X[0] <= 1033.65\ngini = 0.32\nsamples = 30\nvalue = [0, 24, 6]"] ;
315 -> 316 ;
317 [label="X[1] <= 8.521\ngini = 0.208\nsamples = 17\nvalue = [0, 15, 2]"] ;
316 -> 317 ;
318 [label="X[2] <= 5.5\ngini = 0.375\nsamples = 8\nvalue = [0, 6, 2]"] ;
317 -> 318 ;
319 [label="gini = 0.5\nsamples = 2\nvalue = [0, 1, 1]"] ;
318 -> 319 ;
320 [label="X[2] <= 6.5\ngini = 0.278\nsamples = 6\nvalue = [0, 5, 1]"] ;
318 -> 320 ;
321 [label="gini = 0.0\nsamples = 3\nvalue = [0, 3, 0]"] ;
320 -> 321 ;
322 [label="X[2] <= 7.5\ngini = 0.444\nsamples = 3\nvalue = [0, 2, 1]"] ;
320 -> 322 ;
323 [label="gini = 0.5\nsamples = 2\nvalue = [0, 1, 1]"] ;
322 -> 323 ;
324 [label="gini = 0.0\nsamples = 1\nvalue = [0, 1, 0]"] ;
322 -> 324 ;
325 [label="gini = 0.0\nsamples = 9\nvalue = [0, 9, 0]"] ;
317 -> 325 ;
326 [label="X[0] <= 1065.014\ngini = 0.426\nsamples = 13\nvalue = [0, 9, 4]"] ;
316 -> 326 ;
327 [label="X[2] <= 5.5\ngini = 0.48\nsamples = 5\nvalue = [0, 2, 3]"] ;
326 -> 327 ;
328 [label="X[1] <= 10.96\ngini = 0.444\nsamples = 3\nvalue = [0, 2, 1]"] ;
327 -> 328 ;
329 [label="gini = 0.0\nsamples = 2\nvalue = [0, 2, 0]"] ;
328 -> 329 ;
330 [label="gini = 0.0\nsamples = 1\nvalue = [0, 0, 1]"] ;
328 -> 330 ;
331 [label="gini = 0.0\nsamples = 2\nvalue = [0, 0, 2]"] ;
327 -> 331 ;
332 [label="X[2] <= 4.5\ngini = 0.219\nsamples = 8\nvalue = [0, 7, 1]"] ;
326 -> 332 ;
333 [label="gini = 0.375\nsamples = 4\nvalue = [0, 3, 1]"] ;
332 -> 333 ;
334 [label="gini = 0.0\nsamples = 4\nvalue = [0, 4, 0]"] ;
332 -> 334 ;
335 [label="gini = 0.0\nsamples = 1\nvalue = [0, 0, 1]"] ;
315 -> 335 ;
336 [label="gini = 0.0\nsamples = 9\nvalue = [0, 9, 0]"] ;
314 -> 336 ;
337 [label="X[0] <= 1051.196\ngini = 0.5\nsamples = 6\nvalue = [0, 3, 3]"] ;
309 -> 337 ;
338 [label="gini = 0.0\nsamples = 3\nvalue = [0, 0, 3]"] ;
337 -> 338 ;
339 [label="gini = 0.0\nsamples = 3\nvalue = [0, 3, 0]"] ;
337 -> 339 ;
340 [label="X[0] <= 1179.294\ngini = 0.461\nsamples = 81\nvalue = [1, 27, 53]"] ;
280 -> 340 ;
341 [label="X[0] <= 1096.438\ngini = 0.303\nsamples = 43\nvalue = [0, 8, 35]"] ;
340 -> 341 ;
342 [label="X[0] <= 1070.087\ngini = 0.463\nsamples = 11\nvalue = [0, 4, 7]"] ;
341 -> 342 ;
343 [label="gini = 0.0\nsamples = 6\nvalue = [0, 0, 6]"] ;
342 -> 343 ;
344 [label="X[2] <= 3.5\ngini = 0.32\nsamples = 5\nvalue = [0, 4, 1]"] ;
342 -> 344 ;
345 [label="X[1] <= 18.814\ngini = 0.5\nsamples = 2\nvalue = [0, 1, 1]"] ;
344 -> 345 ;
346 [label="gini = 0.0\nsamples = 1\nvalue = [0, 0, 1]"] ;
345 -> 346 ;
347 [label="gini = 0.0\nsamples = 1\nvalue = [0, 1, 0]"] ;
345 -> 347 ;
348 [label="gini = 0.0\nsamples = 3\nvalue = [0, 3, 0]"] ;
344 -> 348 ;
349 [label="X[1] <= 11.581\ngini = 0.219\nsamples = 32\nvalue = [0, 4, 28]"] ;
341 -> 349 ;
350 [label="gini = 0.0\nsamples = 11\nvalue = [0, 0, 11]"] ;
349 -> 350 ;
351 [label="X[1] <= 11.661\ngini = 0.308\nsamples = 21\nvalue = [0, 4, 17]"] ;
349 -> 351 ;
352 [label="gini = 0.0\nsamples = 1\nvalue = [0, 1, 0]"] ;
351 -> 352 ;
353 [label="X[1] <= 15.632\ngini = 0.255\nsamples = 20\nvalue = [0, 3, 17]"] ;
351 -> 353 ;
354 [label="gini = 0.0\nsamples = 7\nvalue = [0, 0, 7]"] ;
353 -> 354 ;
355 [label="X[0] <= 1155.244\ngini = 0.355\nsamples = 13\nvalue = [0, 3, 10]"] ;
353 -> 355 ;
356 [label="X[0] <= 1147.87\ngini = 0.397\nsamples = 11\nvalue = [0, 3, 8]"] ;
355 -> 356 ;
357 [label="X[2] <= 1.5\ngini = 0.32\nsamples = 10\nvalue = [0, 2, 8]"] ;
356 -> 357 ;
358 [label="gini = 0.0\nsamples = 1\nvalue = [0, 0, 1]"] ;
357 -> 358 ;
359 [label="X[2] <= 2.5\ngini = 0.346\nsamples = 9\nvalue = [0, 2, 7]"] ;
357 -> 359 ;
360 [label="gini = 0.444\nsamples = 3\nvalue = [0, 1, 2]"] ;
359 -> 360 ;
361 [label="X[1] <= 15.804\ngini = 0.278\nsamples = 6\nvalue = [0, 1, 5]"] ;
359 -> 361 ;
362 [label="gini = 0.32\nsamples = 5\nvalue = [0, 1, 4]"] ;
361 -> 362 ;
363 [label="gini = 0.0\nsamples = 1\nvalue = [0, 0, 1]"] ;
361 -> 363 ;
364 [label="gini = 0.0\nsamples = 1\nvalue = [0, 1, 0]"] ;
356 -> 364 ;
365 [label="gini = 0.0\nsamples = 2\nvalue = [0, 0, 2]"] ;
355 -> 365 ;
366 [label="X[0] <= 1272.926\ngini = 0.525\nsamples = 38\nvalue = [1, 19, 18]"] ;
340 -> 366 ;
367 [label="X[1] <= 16.579\ngini = 0.497\nsamples = 31\nvalue = [1, 19, 11]"] ;
366 -> 367 ;
368 [label="X[1] <= 10.014\ngini = 0.544\nsamples = 21\nvalue = [1, 10, 10]"] ;
367 -> 368 ;
369 [label="X[1] <= 7.426\ngini = 0.449\nsamples = 7\nvalue = [1, 5, 1]"] ;
368 -> 369 ;
370 [label="gini = 0.0\nsamples = 1\nvalue = [1, 0, 0]"] ;
369 -> 370 ;
371 [label="X[0] <= 1220.332\ngini = 0.278\nsamples = 6\nvalue = [0, 5, 1]"] ;
369 -> 371 ;
372 [label="gini = 0.0\nsamples = 4\nvalue = [0, 4, 0]"] ;
371 -> 372 ;
373 [label="X[0] <= 1253.773\ngini = 0.5\nsamples = 2\nvalue = [0, 1, 1]"] ;
371 -> 373 ;
374 [label="gini = 0.0\nsamples = 1\nvalue = [0, 0, 1]"] ;
373 -> 374 ;
375 [label="gini = 0.0\nsamples = 1\nvalue = [0, 1, 0]"] ;
373 -> 375 ;
376 [label="X[0] <= 1268.483\ngini = 0.459\nsamples = 14\nvalue = [0, 5, 9]"] ;
368 -> 376 ;
377 [label="X[0] <= 1181.864\ngini = 0.375\nsamples = 12\nvalue = [0, 3, 9]"] ;
376 -> 377 ;
378 [label="gini = 0.0\nsamples = 1\nvalue = [0, 1, 0]"] ;
377 -> 378 ;
379 [label="X[0] <= 1227.926\ngini = 0.298\nsamples = 11\nvalue = [0, 2, 9]"] ;
377 -> 379 ;
380 [label="X[0] <= 1189.313\ngini = 0.198\nsamples = 9\nvalue = [0, 1, 8]"] ;
379 -> 380 ;
381 [label="X[1] <= 14.372\ngini = 0.32\nsamples = 5\nvalue = [0, 1, 4]"] ;
380 -> 381 ;
382 [label="gini = 0.444\nsamples = 3\nvalue = [0, 1, 2]"] ;
381 -> 382 ;
383 [label="gini = 0.0\nsamples = 2\nvalue = [0, 0, 2]"] ;
381 -> 383 ;
384 [label="gini = 0.0\nsamples = 4\nvalue = [0, 0, 4]"] ;
380 -> 384 ;
385 [label="X[2] <= 4.5\ngini = 0.5\nsamples = 2\nvalue = [0, 1, 1]"] ;
379 -> 385 ;
386 [label="gini = 0.0\nsamples = 1\nvalue = [0, 1, 0]"] ;
385 -> 386 ;
387 [label="gini = 0.0\nsamples = 1\nvalue = [0, 0, 1]"] ;
385 -> 387 ;
388 [label="gini = 0.0\nsamples = 2\nvalue = [0, 2, 0]"] ;
376 -> 388 ;
389 [label="X[1] <= 50.199\ngini = 0.18\nsamples = 10\nvalue = [0, 9, 1]"] ;
367 -> 389 ;
390 [label="gini = 0.0\nsamples = 9\nvalue = [0, 9, 0]"] ;
389 -> 390 ;
391 [label="gini = 0.0\nsamples = 1\nvalue = [0, 0, 1]"] ;
389 -> 391 ;
392 [label="gini = 0.0\nsamples = 7\nvalue = [0, 0, 7]"] ;
366 -> 392 ;
393 [label="X[0] <= 1833.905\ngini = 0.431\nsamples = 268\nvalue = [6, 188, 74]"] ;
279 -> 393 ;
394 [label="X[0] <= 1685.952\ngini = 0.4\nsamples = 252\nvalue = [5, 185, 62]"] ;
393 -> 394 ;
395 [label="X[0] <= 1303.486\ngini = 0.461\nsamples = 183\nvalue = [5, 122, 56]"] ;
394 -> 395 ;
396 [label="X[1] <= 13.539\ngini = 0.213\nsamples = 33\nvalue = [0, 29, 4]"] ;
395 -> 396 ;
397 [label="X[1] <= 13.479\ngini = 0.397\nsamples = 11\nvalue = [0, 8, 3]"] ;
396 -> 397 ;
398 [label="X[1] <= 10.831\ngini = 0.32\nsamples = 10\nvalue = [0, 8, 2]"] ;
397 -> 398 ;
399 [label="X[1] <= 10.791\ngini = 0.444\nsamples = 6\nvalue = [0, 4, 2]"] ;
398 -> 399 ;
400 [label="X[1] <= 8.391\ngini = 0.32\nsamples = 5\nvalue = [0, 4, 1]"] ;
399 -> 400 ;
401 [label="gini = 0.0\nsamples = 2\nvalue = [0, 2, 0]"] ;
400 -> 401 ;
402 [label="X[0] <= 1296.467\ngini = 0.444\nsamples = 3\nvalue = [0, 2, 1]"] ;
400 -> 402 ;
403 [label="gini = 0.0\nsamples = 1\nvalue = [0, 1, 0]"] ;
402 -> 403 ;
404 [label="gini = 0.5\nsamples = 2\nvalue = [0, 1, 1]"] ;
402 -> 404 ;
405 [label="gini = 0.0\nsamples = 1\nvalue = [0, 0, 1]"] ;
399 -> 405 ;
406 [label="gini = 0.0\nsamples = 4\nvalue = [0, 4, 0]"] ;
398 -> 406 ;
407 [label="gini = 0.0\nsamples = 1\nvalue = [0, 0, 1]"] ;
397 -> 407 ;
408 [label="X[2] <= 2.5\ngini = 0.087\nsamples = 22\nvalue = [0, 21, 1]"] ;
396 -> 408 ;
409 [label="gini = 0.32\nsamples = 5\nvalue = [0, 4, 1]"] ;
408 -> 409 ;
410 [label="gini = 0.0\nsamples = 17\nvalue = [0, 17, 0]"] ;
408 -> 410 ;
411 [label="X[0] <= 1326.148\ngini = 0.494\nsamples = 150\nvalue = [5, 93, 52]"] ;
395 -> 411 ;
412 [label="gini = 0.0\nsamples = 6\nvalue = [0, 0, 6]"] ;
411 -> 412 ;
413 [label="X[0] <= 1487.546\ngini = 0.48\nsamples = 144\nvalue = [5, 93, 46]"] ;
411 -> 413 ;
414 [label="X[1] <= 29.228\ngini = 0.238\nsamples = 29\nvalue = [0, 25, 4]"] ;
413 -> 414 ;
415 [label="X[0] <= 1391.085\ngini = 0.191\nsamples = 28\nvalue = [0, 25, 3]"] ;
414 -> 415 ;
416 [label="X[0] <= 1383.072\ngini = 0.408\nsamples = 7\nvalue = [0, 5, 2]"] ;
415 -> 416 ;
417 [label="gini = 0.0\nsamples = 5\nvalue = [0, 5, 0]"] ;
416 -> 417 ;
418 [label="gini = 0.0\nsamples = 2\nvalue = [0, 0, 2]"] ;
416 -> 418 ;
419 [label="X[1] <= 19.4\ngini = 0.091\nsamples = 21\nvalue = [0, 20, 1]"] ;
415 -> 419 ;
420 [label="gini = 0.0\nsamples = 17\nvalue = [0, 17, 0]"] ;
419 -> 420 ;
421 [label="X[1] <= 19.695\ngini = 0.375\nsamples = 4\nvalue = [0, 3, 1]"] ;
419 -> 421 ;
422 [label="gini = 0.0\nsamples = 1\nvalue = [0, 0, 1]"] ;
421 -> 422 ;
423 [label="gini = 0.0\nsamples = 3\nvalue = [0, 3, 0]"] ;
421 -> 423 ;
424 [label="gini = 0.0\nsamples = 1\nvalue = [0, 0, 1]"] ;
414 -> 424 ;
425 [label="X[1] <= 8.252\ngini = 0.515\nsamples = 115\nvalue = [5, 68, 42]"] ;
413 -> 425 ;
426 [label="X[0] <= 1530.063\ngini = 0.569\nsamples = 12\nvalue = [5, 6, 1]"] ;
425 -> 426 ;
427 [label="X[1] <= 7.921\ngini = 0.32\nsamples = 5\nvalue = [0, 4, 1]"] ;
426 -> 427 ;
428 [label="gini = 0.0\nsamples = 4\nvalue = [0, 4, 0]"] ;
427 -> 428 ;
429 [label="gini = 0.0\nsamples = 1\nvalue = [0, 0, 1]"] ;
427 -> 429 ;
430 [label="X[0] <= 1590.929\ngini = 0.408\nsamples = 7\nvalue = [5, 2, 0]"] ;
426 -> 430 ;
431 [label="gini = 0.0\nsamples = 4\nvalue = [4, 0, 0]"] ;
430 -> 431 ;
432 [label="X[0] <= 1677.033\ngini = 0.444\nsamples = 3\nvalue = [1, 2, 0]"] ;
430 -> 432 ;
433 [label="gini = 0.0\nsamples = 2\nvalue = [0, 2, 0]"] ;
432 -> 433 ;
434 [label="gini = 0.0\nsamples = 1\nvalue = [1, 0, 0]"] ;
432 -> 434 ;
435 [label="X[1] <= 31.876\ngini = 0.479\nsamples = 103\nvalue = [0, 62, 41]"] ;
425 -> 435 ;
436 [label="X[1] <= 27.594\ngini = 0.491\nsamples = 92\nvalue = [0, 52, 40]"] ;
435 -> 436 ;
437 [label="X[0] <= 1604.446\ngini = 0.483\nsamples = 86\nvalue = [0, 51, 35]"] ;
436 -> 437 ;
438 [label="X[0] <= 1501.175\ngini = 0.422\nsamples = 43\nvalue = [0, 30, 13]"] ;
437 -> 438 ;
439 [label="gini = 0.0\nsamples = 1\nvalue = [0, 0, 1]"] ;
438 -> 439 ;
440 [label="X[1] <= 16.106\ngini = 0.408\nsamples = 42\nvalue = [0, 30, 12]"] ;
438 -> 440 ;
441 [label="X[1] <= 15.984\ngini = 0.459\nsamples = 28\nvalue = [0, 18, 10]"] ;
440 -> 441 ;
442 [label="X[1] <= 15.938\ngini = 0.426\nsamples = 26\nvalue = [0, 18, 8]"] ;
441 -> 442 ;
443 [label="X[0] <= 1592.818\ngini = 0.454\nsamples = 23\nvalue = [0, 15, 8]"] ;
442 -> 443 ;
444 [label="X[1] <= 12.885\ngini = 0.472\nsamples = 21\nvalue = [0, 13, 8]"] ;
443 -> 444 ;
445 [label="X[1] <= 10.861\ngini = 0.497\nsamples = 13\nvalue = [0, 7, 6]"] ;
444 -> 445 ;
446 [label="X[2] <= 6.5\ngini = 0.32\nsamples = 5\nvalue = [0, 4, 1]"] ;
445 -> 446 ;
447 [label="gini = 0.0\nsamples = 3\nvalue = [0, 3, 0]"] ;
446 -> 447 ;
448 [label="gini = 0.5\nsamples = 2\nvalue = [0, 1, 1]"] ;
446 -> 448 ;
449 [label="X[1] <= 12.674\ngini = 0.469\nsamples = 8\nvalue = [0, 3, 5]"] ;
445 -> 449 ;
450 [label="gini = 0.0\nsamples = 2\nvalue = [0, 0, 2]"] ;
449 -> 450 ;
451 [label="X[0] <= 1534.425\ngini = 0.5\nsamples = 6\nvalue = [0, 3, 3]"] ;
449 -> 451 ;
452 [label="X[1] <= 12.75\ngini = 0.48\nsamples = 5\nvalue = [0, 3, 2]"] ;
451 -> 452 ;
453 [label="gini = 0.5\nsamples = 4\nvalue = [0, 2, 2]"] ;
452 -> 453 ;
454 [label="gini = 0.0\nsamples = 1\nvalue = [0, 1, 0]"] ;
452 -> 454 ;
455 [label="gini = 0.0\nsamples = 1\nvalue = [0, 0, 1]"] ;
451 -> 455 ;
456 [label="X[1] <= 13.185\ngini = 0.375\nsamples = 8\nvalue = [0, 6, 2]"] ;
444 -> 456 ;
457 [label="gini = 0.0\nsamples = 2\nvalue = [0, 2, 0]"] ;
456 -> 457 ;
458 [label="X[0] <= 1517.103\ngini = 0.444\nsamples = 6\nvalue = [0, 4, 2]"] ;
456 -> 458 ;
459 [label="gini = 0.0\nsamples = 1\nvalue = [0, 1, 0]"] ;
458 -> 459 ;
460 [label="X[2] <= 4.5\ngini = 0.48\nsamples = 5\nvalue = [0, 3, 2]"] ;
458 -> 460 ;
461 [label="gini = 0.444\nsamples = 3\nvalue = [0, 2, 1]"] ;
460 -> 461 ;
462 [label="gini = 0.5\nsamples = 2\nvalue = [0, 1, 1]"] ;
460 -> 462 ;
463 [label="gini = 0.0\nsamples = 2\nvalue = [0, 2, 0]"] ;
443 -> 463 ;
464 [label="gini = 0.0\nsamples = 3\nvalue = [0, 3, 0]"] ;
442 -> 464 ;
465 [label="gini = 0.0\nsamples = 2\nvalue = [0, 0, 2]"] ;
441 -> 465 ;
466 [label="X[1] <= 21.325\ngini = 0.245\nsamples = 14\nvalue = [0, 12, 2]"] ;
440 -> 466 ;
467 [label="gini = 0.0\nsamples = 7\nvalue = [0, 7, 0]"] ;
466 -> 467 ;
468 [label="X[1] <= 21.409\ngini = 0.408\nsamples = 7\nvalue = [0, 5, 2]"] ;
466 -> 468 ;
469 [label="gini = 0.0\nsamples = 1\nvalue = [0, 0, 1]"] ;
468 -> 469 ;
470 [label="X[0] <= 1557.878\ngini = 0.278\nsamples = 6\nvalue = [0, 5, 1]"] ;
468 -> 470 ;
471 [label="X[0] <= 1552.181\ngini = 0.444\nsamples = 3\nvalue = [0, 2, 1]"] ;
470 -> 471 ;
472 [label="gini = 0.0\nsamples = 2\nvalue = [0, 2, 0]"] ;
471 -> 472 ;
473 [label="gini = 0.0\nsamples = 1\nvalue = [0, 0, 1]"] ;
471 -> 473 ;
474 [label="gini = 0.0\nsamples = 3\nvalue = [0, 3, 0]"] ;
470 -> 474 ;
475 [label="X[0] <= 1615.274\ngini = 0.5\nsamples = 43\nvalue = [0, 21, 22]"] ;
437 -> 475 ;
476 [label="gini = 0.0\nsamples = 7\nvalue = [0, 0, 7]"] ;
475 -> 476 ;
477 [label="X[0] <= 1677.033\ngini = 0.486\nsamples = 36\nvalue = [0, 21, 15]"] ;
475 -> 477 ;
478 [label="X[0] <= 1647.893\ngini = 0.444\nsamples = 27\nvalue = [0, 18, 9]"] ;
477 -> 478 ;
479 [label="X[0] <= 1631.851\ngini = 0.5\nsamples = 14\nvalue = [0, 7, 7]"] ;
478 -> 479 ;
480 [label="gini = 0.0\nsamples = 3\nvalue = [0, 3, 0]"] ;
479 -> 480 ;
481 [label="X[2] <= 7.5\ngini = 0.463\nsamples = 11\nvalue = [0, 4, 7]"] ;
479 -> 481 ;
482 [label="X[1] <= 10.539\ngini = 0.48\nsamples = 10\nvalue = [0, 4, 6]"] ;
481 -> 482 ;
483 [label="gini = 0.0\nsamples = 1\nvalue = [0, 1, 0]"] ;
482 -> 483 ;
484 [label="X[0] <= 1643.333\ngini = 0.444\nsamples = 9\nvalue = [0, 3, 6]"] ;
482 -> 484 ;
485 [label="X[0] <= 1636.82\ngini = 0.469\nsamples = 8\nvalue = [0, 3, 5]"] ;
484 -> 485 ;
486 [label="X[2] <= 3.5\ngini = 0.408\nsamples = 7\nvalue = [0, 2, 5]"] ;
485 -> 486 ;
487 [label="gini = 0.5\nsamples = 4\nvalue = [0, 2, 2]"] ;
486 -> 487 ;
488 [label="gini = 0.0\nsamples = 3\nvalue = [0, 0, 3]"] ;
486 -> 488 ;
489 [label="gini = 0.0\nsamples = 1\nvalue = [0, 1, 0]"] ;
485 -> 489 ;
490 [label="gini = 0.0\nsamples = 1\nvalue = [0, 0, 1]"] ;
484 -> 490 ;
491 [label="gini = 0.0\nsamples = 1\nvalue = [0, 0, 1]"] ;
481 -> 491 ;
492 [label="X[2] <= 5.5\ngini = 0.26\nsamples = 13\nvalue = [0, 11, 2]"] ;
478 -> 492 ;
493 [label="X[2] <= 4.5\ngini = 0.165\nsamples = 11\nvalue = [0, 10, 1]"] ;
492 -> 493 ;
494 [label="gini = 0.0\nsamples = 5\nvalue = [0, 5, 0]"] ;
493 -> 494 ;
495 [label="gini = 0.278\nsamples = 6\nvalue = [0, 5, 1]"] ;
493 -> 495 ;
496 [label="gini = 0.5\nsamples = 2\nvalue = [0, 1, 1]"] ;
492 -> 496 ;
497 [label="X[1] <= 15.797\ngini = 0.444\nsamples = 9\nvalue = [0, 3, 6]"] ;
477 -> 497 ;
498 [label="gini = 0.0\nsamples = 2\nvalue = [0, 0, 2]"] ;
497 -> 498 ;
499 [label="X[1] <= 20.477\ngini = 0.49\nsamples = 7\nvalue = [0, 3, 4]"] ;
497 -> 499 ;
500 [label="gini = 0.444\nsamples = 3\nvalue = [0, 1, 2]"] ;
499 -> 500 ;
501 [label="gini = 0.5\nsamples = 4\nvalue = [0, 2, 2]"] ;
499 -> 501 ;
502 [label="gini = 0.278\nsamples = 6\nvalue = [0, 1, 5]"] ;
436 -> 502 ;
503 [label="X[0] <= 1677.033\ngini = 0.165\nsamples = 11\nvalue = [0, 10, 1]"] ;
435 -> 503 ;
504 [label="gini = 0.0\nsamples = 9\nvalue = [0, 9, 0]"] ;
503 -> 504 ;
505 [label="gini = 0.5\nsamples = 2\nvalue = [0, 1, 1]"] ;
503 -> 505 ;
506 [label="X[1] <= 36.696\ngini = 0.159\nsamples = 69\nvalue = [0, 63, 6]"] ;
394 -> 506 ;
507 [label="X[1] <= 14.263\ngini = 0.119\nsamples = 63\nvalue = [0, 59, 4]"] ;
506 -> 507 ;
508 [label="gini = 0.0\nsamples = 23\nvalue = [0, 23, 0]"] ;
507 -> 508 ;
509 [label="X[1] <= 14.419\ngini = 0.18\nsamples = 40\nvalue = [0, 36, 4]"] ;
507 -> 509 ;
510 [label="gini = 0.0\nsamples = 1\nvalue = [0, 0, 1]"] ;
509 -> 510 ;
511 [label="X[1] <= 24.324\ngini = 0.142\nsamples = 39\nvalue = [0, 36, 3]"] ;
509 -> 511 ;
512 [label="X[1] <= 23.778\ngini = 0.204\nsamples = 26\nvalue = [0, 23, 3]"] ;
511 -> 512 ;
513 [label="X[0] <= 1813.072\ngini = 0.147\nsamples = 25\nvalue = [0, 23, 2]"] ;
512 -> 513 ;
514 [label="gini = 0.0\nsamples = 15\nvalue = [0, 15, 0]"] ;
513 -> 514 ;
515 [label="X[0] <= 1826.19\ngini = 0.32\nsamples = 10\nvalue = [0, 8, 2]"] ;
513 -> 515 ;
516 [label="gini = 0.0\nsamples = 1\nvalue = [0, 0, 1]"] ;
515 -> 516 ;
517 [label="X[1] <= 15.248\ngini = 0.198\nsamples = 9\nvalue = [0, 8, 1]"] ;
515 -> 517 ;
518 [label="gini = 0.444\nsamples = 3\nvalue = [0, 2, 1]"] ;
517 -> 518 ;
519 [label="gini = 0.0\nsamples = 6\nvalue = [0, 6, 0]"] ;
517 -> 519 ;
520 [label="gini = 0.0\nsamples = 1\nvalue = [0, 0, 1]"] ;
512 -> 520 ;
521 [label="gini = 0.0\nsamples = 13\nvalue = [0, 13, 0]"] ;
511 -> 521 ;
522 [label="X[1] <= 37.252\ngini = 0.444\nsamples = 6\nvalue = [0, 4, 2]"] ;
506 -> 522 ;
523 [label="gini = 0.0\nsamples = 1\nvalue = [0, 0, 1]"] ;
522 -> 523 ;
524 [label="X[0] <= 1821.622\ngini = 0.32\nsamples = 5\nvalue = [0, 4, 1]"] ;
522 -> 524 ;
525 [label="gini = 0.0\nsamples = 3\nvalue = [0, 3, 0]"] ;
524 -> 525 ;
526 [label="X[1] <= 38.093\ngini = 0.5\nsamples = 2\nvalue = [0, 1, 1]"] ;
524 -> 526 ;
527 [label="gini = 0.0\nsamples = 1\nvalue = [0, 0, 1]"] ;
526 -> 527 ;
528 [label="gini = 0.0\nsamples = 1\nvalue = [0, 1, 0]"] ;
526 -> 528 ;
529 [label="X[3] <= 2.5\ngini = 0.398\nsamples = 16\nvalue = [1, 3, 12]"] ;
393 -> 529 ;
530 [label="X[1] <= 9.906\ngini = 0.568\nsamples = 9\nvalue = [1, 3, 5]"] ;
529 -> 530 ;
531 [label="gini = 0.0\nsamples = 1\nvalue = [1, 0, 0]"] ;
530 -> 531 ;
532 [label="X[0] <= 1857.714\ngini = 0.469\nsamples = 8\nvalue = [0, 3, 5]"] ;
530 -> 532 ;
533 [label="gini = 0.0\nsamples = 1\nvalue = [0, 1, 0]"] ;
532 -> 533 ;
534 [label="X[1] <= 12.042\ngini = 0.408\nsamples = 7\nvalue = [0, 2, 5]"] ;
532 -> 534 ;
535 [label="gini = 0.0\nsamples = 1\nvalue = [0, 1, 0]"] ;
534 -> 535 ;
536 [label="X[2] <= 5.5\ngini = 0.278\nsamples = 6\nvalue = [0, 1, 5]"] ;
534 -> 536 ;
537 [label="X[0] <= 1874.129\ngini = 0.444\nsamples = 3\nvalue = [0, 1, 2]"] ;
536 -> 537 ;
538 [label="gini = 0.5\nsamples = 2\nvalue = [0, 1, 1]"] ;
537 -> 538 ;
539 [label="gini = 0.0\nsamples = 1\nvalue = [0, 0, 1]"] ;
537 -> 539 ;
540 [label="gini = 0.0\nsamples = 3\nvalue = [0, 0, 3]"] ;
536 -> 540 ;
541 [label="gini = 0.0\nsamples = 7\nvalue = [0, 0, 7]"] ;
529 -> 541 ;
542 [label="X[3] <= 3.5\ngini = 0.067\nsamples = 670\nvalue = [4, 647, 19]"] ;
278 -> 542 ;
543 [label="X[1] <= 341.186\ngini = 0.054\nsamples = 651\nvalue = [4, 633, 14]"] ;
542 -> 543 ;
544 [label="X[1] <= 154.55\ngini = 0.051\nsamples = 650\nvalue = [4, 633, 13]"] ;
543 -> 544 ;
545 [label="X[1] <= 11.179\ngini = 0.043\nsamples = 636\nvalue = [4, 622, 10]"] ;
544 -> 545 ;
546 [label="X[1] <= 11.128\ngini = 0.123\nsamples = 77\nvalue = [4, 72, 1]"] ;
545 -> 546 ;
547 [label="X[1] <= 10.99\ngini = 0.101\nsamples = 76\nvalue = [3, 72, 1]"] ;
546 -> 547 ;
548 [label="X[0] <= 2114.723\ngini = 0.078\nsamples = 74\nvalue = [3, 71, 0]"] ;
547 -> 548 ;
549 [label="X[0] <= 2103.24\ngini = 0.298\nsamples = 11\nvalue = [2, 9, 0]"] ;
548 -> 549 ;
550 [label="X[1] <= 3.532\ngini = 0.18\nsamples = 10\nvalue = [1, 9, 0]"] ;
549 -> 550 ;
551 [label="X[0] <= 1976.41\ngini = 0.5\nsamples = 2\nvalue = [1, 1, 0]"] ;
550 -> 551 ;
552 [label="gini = 0.0\nsamples = 1\nvalue = [0, 1, 0]"] ;
551 -> 552 ;
553 [label="gini = 0.0\nsamples = 1\nvalue = [1, 0, 0]"] ;
551 -> 553 ;
554 [label="gini = 0.0\nsamples = 8\nvalue = [0, 8, 0]"] ;
550 -> 554 ;
555 [label="gini = 0.0\nsamples = 1\nvalue = [1, 0, 0]"] ;
549 -> 555 ;
556 [label="X[2] <= 13.5\ngini = 0.031\nsamples = 63\nvalue = [1, 62, 0]"] ;
548 -> 556 ;
557 [label="X[2] <= 12.5\ngini = 0.133\nsamples = 14\nvalue = [1, 13, 0]"] ;
556 -> 557 ;
558 [label="gini = 0.0\nsamples = 11\nvalue = [0, 11, 0]"] ;
557 -> 558 ;
559 [label="X[0] <= 2499.373\ngini = 0.444\nsamples = 3\nvalue = [1, 2, 0]"] ;
557 -> 559 ;
560 [label="gini = 0.0\nsamples = 2\nvalue = [0, 2, 0]"] ;
559 -> 560 ;
561 [label="gini = 0.0\nsamples = 1\nvalue = [1, 0, 0]"] ;
559 -> 561 ;
562 [label="gini = 0.0\nsamples = 49\nvalue = [0, 49, 0]"] ;
556 -> 562 ;
563 [label="X[1] <= 11.061\ngini = 0.5\nsamples = 2\nvalue = [0, 1, 1]"] ;
547 -> 563 ;
564 [label="gini = 0.0\nsamples = 1\nvalue = [0, 0, 1]"] ;
563 -> 564 ;
565 [label="gini = 0.0\nsamples = 1\nvalue = [0, 1, 0]"] ;
563 -> 565 ;
566 [label="gini = 0.0\nsamples = 1\nvalue = [1, 0, 0]"] ;
546 -> 566 ;
567 [label="X[1] <= 68.121\ngini = 0.032\nsamples = 559\nvalue = [0, 550, 9]"] ;
545 -> 567 ;
568 [label="X[2] <= 2.5\ngini = 0.01\nsamples = 414\nvalue = [0, 412, 2]"] ;
567 -> 568 ;
569 [label="X[0] <= 2599.427\ngini = 0.133\nsamples = 14\nvalue = [0, 13, 1]"] ;
568 -> 569 ;
570 [label="gini = 0.0\nsamples = 9\nvalue = [0, 9, 0]"] ;
569 -> 570 ;
571 [label="X[0] <= 2804.833\ngini = 0.32\nsamples = 5\nvalue = [0, 4, 1]"] ;
569 -> 571 ;
572 [label="gini = 0.375\nsamples = 4\nvalue = [0, 3, 1]"] ;
571 -> 572 ;
573 [label="gini = 0.0\nsamples = 1\nvalue = [0, 1, 0]"] ;
571 -> 573 ;
574 [label="X[0] <= 2335.183\ngini = 0.005\nsamples = 400\nvalue = [0, 399, 1]"] ;
568 -> 574 ;
575 [label="X[0] <= 2311.348\ngini = 0.032\nsamples = 61\nvalue = [0, 60, 1]"] ;
574 -> 575 ;
576 [label="gini = 0.0\nsamples = 54\nvalue = [0, 54, 0]"] ;
575 -> 576 ;
577 [label="X[1] <= 21.79\ngini = 0.245\nsamples = 7\nvalue = [0, 6, 1]"] ;
575 -> 577 ;
578 [label="gini = 0.0\nsamples = 2\nvalue = [0, 2, 0]"] ;
577 -> 578 ;
579 [label="X[2] <= 3.5\ngini = 0.32\nsamples = 5\nvalue = [0, 4, 1]"] ;
577 -> 579 ;
580 [label="gini = 0.0\nsamples = 2\nvalue = [0, 2, 0]"] ;
579 -> 580 ;
581 [label="gini = 0.444\nsamples = 3\nvalue = [0, 2, 1]"] ;
579 -> 581 ;
582 [label="gini = 0.0\nsamples = 339\nvalue = [0, 339, 0]"] ;
574 -> 582 ;
583 [label="X[1] <= 68.427\ngini = 0.092\nsamples = 145\nvalue = [0, 138, 7]"] ;
567 -> 583 ;
584 [label="gini = 0.0\nsamples = 1\nvalue = [0, 0, 1]"] ;
583 -> 584 ;
585 [label="X[2] <= 5.5\ngini = 0.08\nsamples = 144\nvalue = [0, 138, 6]"] ;
583 -> 585 ;
586 [label="gini = 0.0\nsamples = 44\nvalue = [0, 44, 0]"] ;
585 -> 586 ;
587 [label="X[0] <= 11367.705\ngini = 0.113\nsamples = 100\nvalue = [0, 94, 6]"] ;
585 -> 587 ;
588 [label="X[0] <= 11155.05\ngini = 0.444\nsamples = 3\nvalue = [0, 1, 2]"] ;
587 -> 588 ;
589 [label="gini = 0.0\nsamples = 1\nvalue = [0, 1, 0]"] ;
588 -> 589 ;
590 [label="gini = 0.0\nsamples = 2\nvalue = [0, 0, 2]"] ;
588 -> 590 ;
591 [label="X[1] <= 132.869\ngini = 0.079\nsamples = 97\nvalue = [0, 93, 4]"] ;
587 -> 591 ;
592 [label="X[1] <= 109.665\ngini = 0.062\nsamples = 94\nvalue = [0, 91, 3]"] ;
591 -> 592 ;
593 [label="X[1] <= 75.75\ngini = 0.028\nsamples = 70\nvalue = [0, 69, 1]"] ;
592 -> 593 ;
594 [label="X[1] <= 75.647\ngini = 0.142\nsamples = 13\nvalue = [0, 12, 1]"] ;
593 -> 594 ;
595 [label="gini = 0.0\nsamples = 12\nvalue = [0, 12, 0]"] ;
594 -> 595 ;
596 [label="gini = 0.0\nsamples = 1\nvalue = [0, 0, 1]"] ;
594 -> 596 ;
597 [label="gini = 0.0\nsamples = 57\nvalue = [0, 57, 0]"] ;
593 -> 597 ;
598 [label="X[1] <= 110.629\ngini = 0.153\nsamples = 24\nvalue = [0, 22, 2]"] ;
592 -> 598 ;
599 [label="gini = 0.0\nsamples = 2\nvalue = [0, 0, 2]"] ;
598 -> 599 ;
600 [label="gini = 0.0\nsamples = 22\nvalue = [0, 22, 0]"] ;
598 -> 600 ;
601 [label="X[1] <= 134.629\ngini = 0.444\nsamples = 3\nvalue = [0, 2, 1]"] ;
591 -> 601 ;
602 [label="gini = 0.0\nsamples = 1\nvalue = [0, 0, 1]"] ;
601 -> 602 ;
603 [label="gini = 0.0\nsamples = 2\nvalue = [0, 2, 0]"] ;
601 -> 603 ;
604 [label="X[1] <= 158.814\ngini = 0.337\nsamples = 14\nvalue = [0, 11, 3]"] ;
544 -> 604 ;
605 [label="gini = 0.0\nsamples = 2\nvalue = [0, 0, 2]"] ;
604 -> 605 ;
606 [label="X[0] <= 13149.268\ngini = 0.153\nsamples = 12\nvalue = [0, 11, 1]"] ;
604 -> 606 ;
607 [label="X[0] <= 12389.615\ngini = 0.444\nsamples = 3\nvalue = [0, 2, 1]"] ;
606 -> 607 ;
608 [label="gini = 0.0\nsamples = 2\nvalue = [0, 2, 0]"] ;
607 -> 608 ;
609 [label="gini = 0.0\nsamples = 1\nvalue = [0, 0, 1]"] ;
607 -> 609 ;
610 [label="gini = 0.0\nsamples = 9\nvalue = [0, 9, 0]"] ;
606 -> 610 ;
611 [label="gini = 0.0\nsamples = 1\nvalue = [0, 0, 1]"] ;
543 -> 611 ;
612 [label="X[0] <= 3079.158\ngini = 0.388\nsamples = 19\nvalue = [0, 14, 5]"] ;
542 -> 612 ;
613 [label="X[0] <= 1903.169\ngini = 0.278\nsamples = 6\nvalue = [0, 1, 5]"] ;
612 -> 613 ;
614 [label="gini = 0.0\nsamples = 1\nvalue = [0, 1, 0]"] ;
613 -> 614 ;
615 [label="gini = 0.0\nsamples = 5\nvalue = [0, 0, 5]"] ;
613 -> 615 ;
616 [label="gini = 0.0\nsamples = 13\nvalue = [0, 13, 0]"] ;
612 -> 616 ;
}
